FANN_FLO_2.1
num_layers=4
learning_rate=0.001000
connection_rate=1.000000
network_type=0
learning_momentum=0.000000
training_algorithm=2
train_error_function=1
train_stop_function=0
cascade_output_change_fraction=0.010000
quickprop_decay=-0.000100
quickprop_mu=1.750000
rprop_increase_factor=1.200000
rprop_decrease_factor=0.500000
rprop_delta_min=0.000000
rprop_delta_max=50.000000
rprop_delta_zero=0.100000
cascade_output_stagnation_epochs=12
cascade_candidate_change_fraction=0.010000
cascade_candidate_stagnation_epochs=12
cascade_max_out_epochs=150
cascade_min_out_epochs=50
cascade_max_cand_epochs=150
cascade_min_cand_epochs=50
cascade_num_candidate_groups=2
bit_fail_limit=3.49999994039535522461e-01
cascade_candidate_limit=1.00000000000000000000e+03
cascade_weight_multiplier=4.00000005960464477539e-01
cascade_activation_functions_count=10
cascade_activation_functions=3 5 7 8 10 11 14 15 16 17 
cascade_activation_steepnesses_count=4
cascade_activation_steepnesses=2.50000000000000000000e-01 5.00000000000000000000e-01 7.50000000000000000000e-01 1.00000000000000000000e+00 
layer_sizes=7 9 9 2 
scale_included=0
neurons (num_inputs, activation_function, activation_steepness)=(0, 0, 0.00000000000000000000e+00) (0, 0, 0.00000000000000000000e+00) (0, 0, 0.00000000000000000000e+00) (0, 0, 0.00000000000000000000e+00) (0, 0, 0.00000000000000000000e+00) (0, 0, 0.00000000000000000000e+00) (0, 0, 0.00000000000000000000e+00) (7, 3, 5.00000000000000000000e-01) (7, 3, 5.00000000000000000000e-01) (7, 3, 5.00000000000000000000e-01) (7, 3, 5.00000000000000000000e-01) (7, 3, 5.00000000000000000000e-01) (7, 3, 5.00000000000000000000e-01) (7, 3, 5.00000000000000000000e-01) (7, 3, 5.00000000000000000000e-01) (0, 3, 0.00000000000000000000e+00) (9, 3, 5.00000000000000000000e-01) (9, 3, 5.00000000000000000000e-01) (9, 3, 5.00000000000000000000e-01) (9, 3, 5.00000000000000000000e-01) (9, 3, 5.00000000000000000000e-01) (9, 3, 5.00000000000000000000e-01) (9, 3, 5.00000000000000000000e-01) (9, 3, 5.00000000000000000000e-01) (0, 3, 0.00000000000000000000e+00) (9, 3, 5.00000000000000000000e-01) (0, 3, 0.00000000000000000000e+00) 
connections (connected_to_neuron, weight)=(0, -4.95739746093750000000e+00) (1, 3.72351002693176269531e+00) (2, -1.62761044502258300781e+00) (3, -1.50307762622833251953e+00) (4, -4.72470521926879882812e-01) (5, -1.13783359527587890625e+01) (6, 4.37617510557174682617e-01) (0, -2.99876835197210311890e-03) (1, -1.94368731975555419922e+00) (2, 7.79815495014190673828e-01) (3, -2.70790529251098632812e+00) (4, -1.06808459758758544922e+00) (5, 2.48811674118041992188e+00) (6, -5.83687782287597656250e-01) (0, 1.36129148304462432861e-02) (1, -1.86762130260467529297e+00) (2, 8.48651289939880371094e-01) (3, -2.62146735191345214844e+00) (4, -9.68664228916168212891e-01) (5, 2.48394656181335449219e+00) (6, -5.46612739562988281250e-01) (0, -3.45734620094299316406e+00) (1, 3.25354313850402832031e+00) (2, 1.50697290897369384766e-01) (3, -7.86065578460693359375e-01) (4, -1.94436120986938476562e+00) (5, -6.54881572723388671875e+00) (6, -2.60345131158828735352e-01) (0, -2.86408758163452148438e+00) (1, 6.82604432106018066406e-01) (2, 3.65626573562622070312e-01) (3, -2.99751591682434082031e+00) (4, -1.11943423748016357422e+00) (5, 8.96359205245971679688e-01) (6, 8.86972725391387939453e-01) (0, -3.15842151641845703125e+00) (1, 1.19304454326629638672e+00) (2, -8.84707450866699218750e-01) (3, -2.62592649459838867188e+00) (4, -1.15158140659332275391e+00) (5, 4.02309805154800415039e-01) (6, 9.63320672512054443359e-01) (0, 7.61125385761260986328e-02) (1, -1.57830941677093505859e+00) (2, 1.06496322154998779297e+00) (3, -2.39729142189025878906e+00) (4, -6.07208967208862304688e-01) (5, 2.54014086723327636719e+00) (6, -3.55613768100738525391e-01) (0, -3.10600018501281738281e+00) (1, 9.70386266708374023438e-01) (2, -4.61828470230102539062e-01) (3, -2.75287032127380371094e+00) (4, -1.08303356170654296875e+00) (5, 5.18617570400238037109e-01) (6, 9.63961422443389892578e-01) (7, 5.13270664215087890625e+00) (8, 1.90969240665435791016e+00) (9, 1.84225535392761230469e+00) (10, 1.29866349697113037109e+00) (11, -1.28454554080963134766e+00) (12, -1.73608016967773437500e+00) (13, 1.79497623443603515625e+00) (14, -1.68656718730926513672e+00) (15, -1.97939217090606689453e+00) (7, 5.35321569442749023438e+00) (8, 1.97950327396392822266e+00) (9, 1.88745355606079101562e+00) (10, 8.66932928562164306641e-01) (11, -1.35791885852813720703e+00) (12, -2.07227110862731933594e+00) (13, 1.87605583667755126953e+00) (14, -1.94003403186798095703e+00) (15, -1.81659102439880371094e+00) (7, 5.12178611755371093750e+00) (8, 1.93553030490875244141e+00) (9, 1.82027745246887207031e+00) (10, 1.23426723480224609375e+00) (11, -1.36187040805816650391e+00) (12, -1.67358982563018798828e+00) (13, 1.81210970878601074219e+00) (14, -1.72750890254974365234e+00) (15, -1.96363556385040283203e+00) (7, 5.22487211227416992188e+00) (8, 1.93976342678070068359e+00) (9, 1.90574705600738525391e+00) (10, 1.05629360675811767578e+00) (11, -1.33620631694793701172e+00) (12, -1.92694580554962158203e+00) (13, 1.84664249420166015625e+00) (14, -1.79537487030029296875e+00) (15, -1.90695977210998535156e+00) (7, 5.35719060897827148438e+00) (8, 1.98075127601623535156e+00) (9, 1.86086654663085937500e+00) (10, 8.39392185211181640625e-01) (11, -1.36168134212493896484e+00) (12, -2.11323904991149902344e+00) (13, 1.88638401031494140625e+00) (14, -1.93504071235656738281e+00) (15, -1.79683113098144531250e+00) (7, 5.24724245071411132812e+00) (8, 1.92909395694732666016e+00) (9, 1.90597379207611083984e+00) (10, 9.45577025413513183594e-01) (11, -1.35687077045440673828e+00) (12, -1.98522591590881347656e+00) (13, 1.87910163402557373047e+00) (14, -1.89326155185699462891e+00) (15, -1.85107612609863281250e+00) (7, 5.10010814666748046875e+00) (8, 1.84636986255645751953e+00) (9, 1.79791581630706787109e+00) (10, 1.46603512763977050781e+00) (11, -1.28117597103118896484e+00) (12, -1.53013777732849121094e+00) (13, 1.75023889541625976562e+00) (14, -1.55211246013641357422e+00) (15, -2.04121088981628417969e+00) (7, 5.06384468078613281250e+00) (8, 1.87227380275726318359e+00) (9, 1.74114036560058593750e+00) (10, 1.56999886035919189453e+00) (11, -1.30434453487396240234e+00) (12, -1.46767222881317138672e+00) (13, 1.72612261772155761719e+00) (14, -1.47127890586853027344e+00) (15, -2.05970382690429687500e+00) (16, -1.45264279842376708984e+00) (17, -1.71538722515106201172e+00) (18, -1.45624482631683349609e+00) (19, -1.57392728328704833984e+00) (20, -1.72671294212341308594e+00) (21, -1.62782061100006103516e+00) (22, -1.36441218852996826172e+00) (23, -1.31879782676696777344e+00) (24, 1.20449805259704589844e+00) 
