FANN_FLO_2.1
num_layers=4
learning_rate=0.001000
connection_rate=1.000000
network_type=0
learning_momentum=0.000000
training_algorithm=2
train_error_function=1
train_stop_function=0
cascade_output_change_fraction=0.010000
quickprop_decay=-0.000100
quickprop_mu=1.750000
rprop_increase_factor=1.200000
rprop_decrease_factor=0.500000
rprop_delta_min=0.000000
rprop_delta_max=50.000000
rprop_delta_zero=0.100000
cascade_output_stagnation_epochs=12
cascade_candidate_change_fraction=0.010000
cascade_candidate_stagnation_epochs=12
cascade_max_out_epochs=150
cascade_min_out_epochs=50
cascade_max_cand_epochs=150
cascade_min_cand_epochs=50
cascade_num_candidate_groups=2
bit_fail_limit=3.49999994039535522461e-01
cascade_candidate_limit=1.00000000000000000000e+03
cascade_weight_multiplier=4.00000005960464477539e-01
cascade_activation_functions_count=10
cascade_activation_functions=3 5 7 8 10 11 14 15 16 17 
cascade_activation_steepnesses_count=4
cascade_activation_steepnesses=2.50000000000000000000e-01 5.00000000000000000000e-01 7.50000000000000000000e-01 1.00000000000000000000e+00 
layer_sizes=6 9 9 2 
scale_included=0
neurons (num_inputs, activation_function, activation_steepness)=(0, 0, 0.00000000000000000000e+00) (0, 0, 0.00000000000000000000e+00) (0, 0, 0.00000000000000000000e+00) (0, 0, 0.00000000000000000000e+00) (0, 0, 0.00000000000000000000e+00) (0, 0, 0.00000000000000000000e+00) (6, 3, 5.00000000000000000000e-01) (6, 3, 5.00000000000000000000e-01) (6, 3, 5.00000000000000000000e-01) (6, 3, 5.00000000000000000000e-01) (6, 3, 5.00000000000000000000e-01) (6, 3, 5.00000000000000000000e-01) (6, 3, 5.00000000000000000000e-01) (6, 3, 5.00000000000000000000e-01) (0, 3, 0.00000000000000000000e+00) (9, 3, 5.00000000000000000000e-01) (9, 3, 5.00000000000000000000e-01) (9, 3, 5.00000000000000000000e-01) (9, 3, 5.00000000000000000000e-01) (9, 3, 5.00000000000000000000e-01) (9, 3, 5.00000000000000000000e-01) (9, 3, 5.00000000000000000000e-01) (9, 3, 5.00000000000000000000e-01) (0, 3, 0.00000000000000000000e+00) (9, 3, 5.00000000000000000000e-01) (0, 3, 0.00000000000000000000e+00) 
connections (connected_to_neuron, weight)=(0, -4.31389242410659790039e-01) (1, 2.95876786112785339355e-02) (2, -5.31632244586944580078e-01) (3, -1.48414754867553710938e+00) (4, -2.89312648773193359375e+00) (5, -1.62534332275390625000e+01) (0, -1.46058762073516845703e+00) (1, 4.44598138332366943359e-01) (2, 7.61578619480133056641e-01) (3, 1.14347505569458007812e+01) (4, 9.31796491146087646484e-01) (5, 2.32641773223876953125e+01) (0, 1.35110263824462890625e+01) (1, -4.76352572441101074219e-01) (2, 8.76190483570098876953e-01) (3, -2.66998481750488281250e+00) (4, 6.02035880088806152344e-01) (5, -1.23311042785644531250e+01) (0, 2.65962553024291992188e+00) (1, -3.95534515380859375000e+00) (2, 4.27333056926727294922e-01) (3, -1.93947696685791015625e+00) (4, -5.90824335813522338867e-02) (5, -4.87703561782836914062e+00) (0, -8.44067782163619995117e-02) (1, 1.42018306255340576172e+00) (2, 1.11870336532592773438e+00) (3, 2.30981016159057617188e+00) (4, 4.20417499542236328125e+00) (5, -3.46583557128906250000e+00) (0, -1.11501479148864746094e+00) (1, -2.64581871032714843750e+00) (2, -5.44067621231079101562e-01) (3, -3.67871809005737304688e+00) (4, 1.15685749053955078125e+00) (5, -5.25182199478149414062e+00) (0, 3.97328829765319824219e+00) (1, 2.89181971549987792969e+00) (2, 1.19274103641510009766e+00) (3, 2.05119967460632324219e+00) (4, -5.12080527842044830322e-02) (5, 2.14798283576965332031e+00) (0, 3.04674029350280761719e+00) (1, -2.60806232690811157227e-01) (2, -3.33613276481628417969e-01) (3, 2.73403148651123046875e+01) (4, 1.66120135784149169922e+00) (5, -9.61213016510009765625e+00) (6, -1.09078824520111083984e+00) (7, -7.28603649139404296875e+00) (8, 5.93205404281616210938e+00) (9, -7.10482835769653320312e-01) (10, 4.51696491241455078125e+00) (11, -3.82652425765991210938e+00) (12, -2.04653963446617126465e-01) (13, 2.45148634910583496094e+00) (14, -1.40926539897918701172e+00) (6, -4.36104393005371093750e+00) (7, -7.08066844940185546875e+00) (8, 2.81147527694702148438e+00) (9, -1.79140090942382812500e+00) (10, 2.64584946632385253906e+00) (11, 7.26386010646820068359e-01) (12, -4.37715947628021240234e-01) (13, 6.54985713958740234375e+00) (14, -1.34885263442993164062e+00) (6, -3.60351157188415527344e+00) (7, -6.69218158721923828125e+00) (8, -2.28102475404739379883e-01) (9, -3.69024038314819335938e+00) (10, 3.36960268020629882812e+00) (11, 7.93004393577575683594e-01) (12, -2.41332530975341796875e-01) (13, 5.81234645843505859375e+00) (14, -1.11989974975585937500e+00) (6, -1.00550341606140136719e+00) (7, -7.06194734573364257812e+00) (8, 4.25559186935424804688e+00) (9, -1.44887101650238037109e+00) (10, 5.51900911331176757812e+00) (11, -2.35486817359924316406e+00) (12, -5.94790093600749969482e-04) (13, 4.50891113281250000000e+00) (14, -8.83906841278076171875e-01) (6, -6.36552453041076660156e-01) (7, -7.20414686203002929688e+00) (8, 5.53403043746948242188e+00) (9, -1.93549418449401855469e+00) (10, 4.84093809127807617188e+00) (11, -3.11151790618896484375e+00) (12, 2.24312976002693176270e-01) (13, 3.91037654876708984375e+00) (14, -1.49570453166961669922e+00) (6, -9.66874480247497558594e-01) (7, -5.14136028289794921875e+00) (8, -8.67680263519287109375e+00) (9, 2.78688812255859375000e+00) (10, -2.60431122779846191406e+00) (11, 3.67357754707336425781e+00) (12, -5.55058240890502929688e+00) (13, 4.35069608688354492188e+00) (14, 8.41516554355621337891e-01) (6, -5.61326622962951660156e-01) (7, -5.68531799316406250000e+00) (8, -3.02800440788269042969e+00) (9, 6.76195716857910156250e+00) (10, -1.67227649688720703125e+01) (11, 1.08128490447998046875e+01) (12, -4.97593927383422851562e+00) (13, 3.40639519691467285156e+00) (14, 8.45568776130676269531e-01) (6, -4.42441821098327636719e-01) (7, -4.79582500457763671875e+00) (8, -1.75504016876220703125e+00) (9, 6.36374044418334960938e+00) (10, -7.71979427337646484375e+00) (11, 3.81826543807983398438e+00) (12, -5.80539751052856445312e+00) (13, 4.13364076614379882812e+00) (14, 1.26737570762634277344e+00) (15, -7.13740634918212890625e+00) (16, -5.93930006027221679688e+00) (17, -6.33623504638671875000e+00) (18, -5.89517974853515625000e+00) (19, -5.95002603530883789062e+00) (20, -5.49145555496215820312e+00) (21, -8.50757408142089843750e+00) (22, -5.64484977722167968750e+00) (23, 8.76069736480712890625e+00) 
