FANN_FLO_2.1
num_layers=4
learning_rate=0.001000
connection_rate=1.000000
network_type=0
learning_momentum=0.000000
training_algorithm=2
train_error_function=1
train_stop_function=0
cascade_output_change_fraction=0.010000
quickprop_decay=-0.000100
quickprop_mu=1.750000
rprop_increase_factor=1.200000
rprop_decrease_factor=0.500000
rprop_delta_min=0.000000
rprop_delta_max=50.000000
rprop_delta_zero=0.100000
cascade_output_stagnation_epochs=12
cascade_candidate_change_fraction=0.010000
cascade_candidate_stagnation_epochs=12
cascade_max_out_epochs=150
cascade_min_out_epochs=50
cascade_max_cand_epochs=150
cascade_min_cand_epochs=50
cascade_num_candidate_groups=2
bit_fail_limit=3.49999994039535522461e-01
cascade_candidate_limit=1.00000000000000000000e+03
cascade_weight_multiplier=4.00000005960464477539e-01
cascade_activation_functions_count=10
cascade_activation_functions=3 5 7 8 10 11 14 15 16 17 
cascade_activation_steepnesses_count=4
cascade_activation_steepnesses=2.50000000000000000000e-01 5.00000000000000000000e-01 7.50000000000000000000e-01 1.00000000000000000000e+00 
layer_sizes=7 9 9 2 
scale_included=0
neurons (num_inputs, activation_function, activation_steepness)=(0, 0, 0.00000000000000000000e+00) (0, 0, 0.00000000000000000000e+00) (0, 0, 0.00000000000000000000e+00) (0, 0, 0.00000000000000000000e+00) (0, 0, 0.00000000000000000000e+00) (0, 0, 0.00000000000000000000e+00) (0, 0, 0.00000000000000000000e+00) (7, 3, 5.00000000000000000000e-01) (7, 3, 5.00000000000000000000e-01) (7, 3, 5.00000000000000000000e-01) (7, 3, 5.00000000000000000000e-01) (7, 3, 5.00000000000000000000e-01) (7, 3, 5.00000000000000000000e-01) (7, 3, 5.00000000000000000000e-01) (7, 3, 5.00000000000000000000e-01) (0, 3, 0.00000000000000000000e+00) (9, 3, 5.00000000000000000000e-01) (9, 3, 5.00000000000000000000e-01) (9, 3, 5.00000000000000000000e-01) (9, 3, 5.00000000000000000000e-01) (9, 3, 5.00000000000000000000e-01) (9, 3, 5.00000000000000000000e-01) (9, 3, 5.00000000000000000000e-01) (9, 3, 5.00000000000000000000e-01) (0, 3, 0.00000000000000000000e+00) (9, 3, 5.00000000000000000000e-01) (0, 3, 0.00000000000000000000e+00) 
connections (connected_to_neuron, weight)=(0, 1.91565677523612976074e-01) (1, -2.08584809303283691406e+00) (2, 1.01200115680694580078e+00) (3, -2.63621616363525390625e+00) (4, -7.24673032760620117188e-01) (5, 2.77552294731140136719e+00) (6, -5.95415890216827392578e-01) (0, -2.78437209129333496094e+00) (1, 5.82352042198181152344e-01) (2, 7.77704715728759765625e-01) (3, -3.16358590126037597656e+00) (4, -1.31415343284606933594e+00) (5, 9.29070353507995605469e-01) (6, 9.27972316741943359375e-01) (0, 2.38817855715751647949e-01) (1, -2.02293777465820312500e+00) (2, 8.98694813251495361328e-01) (3, -2.72905945777893066406e+00) (4, -1.52964425086975097656e+00) (5, 2.69164156913757324219e+00) (6, -7.19099402427673339844e-01) (0, -3.50303363800048828125e+00) (1, 3.38144397735595703125e+00) (2, -4.25682842731475830078e-01) (3, -1.79508364200592041016e+00) (4, -9.37909364700317382812e-01) (5, -7.61477708816528320312e+00) (6, -5.54403126239776611328e-01) (0, 1.15268848836421966553e-01) (1, -1.51944053173065185547e+00) (2, 1.03788065910339355469e+00) (3, -2.40919661521911621094e+00) (4, -5.50567388534545898438e-01) (5, 2.56872510910034179688e+00) (6, -3.56403768062591552734e-01) (0, -4.86068630218505859375e+00) (1, 3.47868180274963378906e+00) (2, -1.60126209259033203125e+00) (3, -1.17327296733856201172e+00) (4, -4.17154967784881591797e-01) (5, -1.09916830062866210938e+01) (6, 2.25973978638648986816e-01) (0, -3.98033881187438964844e+00) (1, 3.52384543418884277344e+00) (2, -7.20526814460754394531e-01) (3, -1.47504413127899169922e+00) (4, -1.08612823486328125000e+00) (5, -9.23775863647460937500e+00) (6, -8.62934067845344543457e-02) (0, -3.36219501495361328125e+00) (1, 1.12097835540771484375e+00) (2, -8.93799543380737304688e-01) (3, -2.91398715972900390625e+00) (4, -1.23903298377990722656e+00) (5, 7.13199079036712646484e-01) (6, 1.16973137855529785156e+00) (7, 2.19063138961791992188e+00) (8, -1.68171334266662597656e+00) (9, 1.90967226028442382812e+00) (10, 1.03826832771301269531e+00) (11, 1.42225313186645507812e+00) (12, 3.98528265953063964844e+00) (13, 2.41804575920104980469e+00) (14, -2.53745698928833007812e+00) (15, -2.02974700927734375000e+00) (7, 2.15281987190246582031e+00) (8, -1.61567795276641845703e+00) (9, 1.95224261283874511719e+00) (10, 7.50634729862213134766e-01) (11, 1.46493160724639892578e+00) (12, 4.03945589065551757812e+00) (13, 2.37136292457580566406e+00) (14, -2.87911272048950195312e+00) (15, -1.91999530792236328125e+00) (7, 2.15565156936645507812e+00) (8, -1.60304880142211914062e+00) (9, 1.92564928531646728516e+00) (10, 8.71494591236114501953e-01) (11, 1.43781578540802001953e+00) (12, 4.02141141891479492188e+00) (13, 2.34972834587097167969e+00) (14, -2.72763848304748535156e+00) (15, -1.96993386745452880859e+00) (7, 2.20441126823425292969e+00) (8, -1.67110621929168701172e+00) (9, 1.97687613964080810547e+00) (10, 7.47018098831176757812e-01) (11, 1.41437351703643798828e+00) (12, 4.06532621383666992188e+00) (13, 2.33649253845214843750e+00) (14, -2.86714863777160644531e+00) (15, -1.90751636028289794922e+00) (7, 2.13856911659240722656e+00) (8, -1.66948425769805908203e+00) (9, 1.95293951034545898438e+00) (10, 9.11452174186706542969e-01) (11, 1.46518075466156005859e+00) (12, 4.01252222061157226562e+00) (13, 2.39329767227172851562e+00) (14, -2.67363905906677246094e+00) (15, -1.98735368251800537109e+00) (7, 2.13895559310913085938e+00) (8, -1.63636672496795654297e+00) (9, 1.91440510749816894531e+00) (10, 1.10805463790893554688e+00) (11, 1.43427121639251708984e+00) (12, 3.98092460632324218750e+00) (13, 2.40759825706481933594e+00) (14, -2.50022602081298828125e+00) (15, -2.05005908012390136719e+00) (7, 2.14205121994018554688e+00) (8, -1.65459132194519042969e+00) (9, 1.90000355243682861328e+00) (10, 1.09380686283111572266e+00) (11, 1.43901288509368896484e+00) (12, 3.95386528968811035156e+00) (13, 2.42958259582519531250e+00) (14, -2.48311042785644531250e+00) (15, -2.04615521430969238281e+00) (7, 2.21123957633972167969e+00) (8, -1.63951814174652099609e+00) (9, 1.91351735591888427734e+00) (10, 6.94971024990081787109e-01) (11, 1.45576488971710205078e+00) (12, 4.11942625045776367188e+00) (13, 2.30036115646362304688e+00) (14, -2.92294859886169433594e+00) (15, -1.89546465873718261719e+00) (16, -1.44066381454467773438e+00) (17, -1.56469047069549560547e+00) (18, -1.49119603633880615234e+00) (19, -1.59003210067749023438e+00) (20, -1.49006915092468261719e+00) (21, -1.40603625774383544922e+00) (22, -1.40486073493957519531e+00) (23, -1.61409890651702880859e+00) (24, 1.15724968910217285156e+00) 
